#define HIDDEN_WEIGHT_X2 {-6123,-3195,-11908,-5646,9753,-1570,-6491,-5172,-6562,-8264,8841,-3883,594,-1794,2678,-11050,-17566,29236,1633,681,-3292,-2537,-2101,-2785,-8472,-807,7377,1317,-12211,-371,9628,5758,-510,-670,-1566,-921,-1422,-1318,-2487,-1170,-137,-818,-655,146,315,304,765,799,819,-14536,8712,501,658,-4411,367,-3085,-1528,-1465,-375,-233,58,-786,-532,-478,-140,126,686,523,-2863,-1312,-2610,-1734,0,1400,-19,0,-12086,1262,7885,-1480,6061,-11801,-2205,273,-400,-10648,5044,297,-9399,4488,8119,-6258,7725,455,36,1586,8226,-1928,1202,-1884,1856,1008,2644,2390,-706,279,-824,-467,1328,462,2630,1198,1156,1113,1589,739,7010,-12831,1837,-254,-1662,409,-1624,-761,-1384,-2029,-1866,-1769,785,-639,740,219,1286,1885,2291,4273,-399,-2040,-728,-1337,-14082,4304,3344,-223,897,-4,19,-1,823,-207,1063,854,-7746,-486,-7368,-462,-1345,-1662,-4310,-2760}

#define HIDDEN_WEIGHT_X4 {-6123,9753,-3195,-1570,-6562,594,-8264,-1794,-11908,-6491,-5646,-5172,8841,2678,-3883,-11050,-17566,-3292,29236,-2537,-8472,-12211,-807,-371,1633,-2101,681,-2785,7377,9628,1317,5758,-510,-1422,-670,-1318,-137,315,-818,304,-1566,-2487,-921,-1170,-655,765,146,799,819,658,-14536,-4411,-1528,58,-1465,-786,8712,367,501,-3085,-375,-532,-233,-478,-140,-2863,126,-1312,0,-12086,1400,1262,686,-2610,523,-1734,-19,7885,0,-1480,6061,-400,-11801,-10648,-9399,7725,4488,455,-2205,5044,273,297,8119,36,-6258,1586,8226,1856,-1928,1008,-706,1328,279,462,1202,2644,-1884,2390,-824,2630,-467,1198,1156,7010,1113,-12831,-1662,-1384,409,-2029,1589,1837,739,-254,-1624,-1866,-761,-1769,785,1286,-639,1885,-399,-14082,-2040,4304,740,2291,219,4273,-728,3344,-1337,-223,897,823,-4,-207,-7746,-1345,-486,-1662,19,1063,-1,854,-7368,-4310,-462,-2760}

#define OUTPUT_WEIGHT_X2 {355,2837,-1768,-1302,481,151,-1217,2463,117,-186,-79,-1663,6901,-1649,-729,139,-1631,-162,8623,553,-74,-3456,703,-1127,1888,-1618,-144,-3050,-1901,2383,-96,-630,-1711,-1864,-874,-1385,10061,-1631,-737,542,-104,-362,-158,1346,-597,632,2705,1996,-50,67,167,1410,-2112,5,1404,98,1287,-272,1611,1090,-2285,-854,1614,76,-2972,1290,-14,2474,1391,255,681,1230,1750,1175,100,3247,-18233,1160,1213,312,-210,503,1287,-695,3418,-611,-1667,-2438,-18,-84,33,-194,-4888,-636,-176,92,68,-140,4933,391,-257,-146,154,298,-480,98,-66,429,-19,-5908,-676,-256,-546,148,-9,-152,8067,86,-142,-236,412,-2965,1151,200,-3382,-407,496,-1699,25,140,-134,394,344,2613,-466,123,407,367,-14867,-2132,2921,4642,-2217,517,1404,632,-117,458,130,3286,-177,-443,547,350,1030,-1074,132,527,-549,-186}

#define OUTPUT_WEIGHT_X4 {355,-104,2837,-362,-210,412,503,-2965,-1768,-158,-1302,1346,1287,1151,-695,200,481,-597,151,632,3418,-3382,-611,-407,-1217,2705,2463,1996,-1667,496,-2438,-1699,117,-50,-186,67,-18,25,-84,140,-79,167,-1663,1410,33,-134,-194,394,6901,-2112,-1649,5,-4888,344,-636,2613,-729,1404,139,98,-176,-466,92,123,-1631,1287,-162,-272,68,407,-140,367,8623,1611,553,1090,4933,-14867,391,-2132,-74,-2285,-3456,-854,-257,2921,-146,4642,703,1614,-1127,76,154,-2217,298,517,1888,-2972,-1618,1290,-480,1404,98,632,-144,-14,-3050,2474,-66,-117,429,458,-1901,1391,2383,255,-19,130,-5908,3286,-96,681,-630,1230,-676,-177,-256,-443,-1711,1750,-1864,1175,-546,547,148,350,-874,100,-1385,3247,-9,1030,-152,-1074,10061,-18233,-1631,1160,8067,132,86,527,-737,1213,542,312,-142,-549,-236,-186}

#define HIDDEN_BIAS {-129,-462,995,239,67,-215,-120,-411,45,28,-80,213,1362,-50,22,107,74,-107,-16428,1059,437,-433,-39,-198,-140,137,-134,63,13,92,-104,-192,103,123,179,775,-20851,-116,42,190}

#define OUTPUT_BIAS {-30337,19603,2720,7219}
